64 100
</s> 0.004003 0.004419 -0.003830 -0.003278 0.001367 0.003021 0.000941 0.000211 -0.003604 0.002218 -0.004356 0.001250 -0.000751 -0.000957 -0.003316 -0.001882 0.002579 0.003025 0.002969 0.001597 0.001545 -0.003803 -0.004096 0.004970 0.003801 0.003090 -0.000604 0.004016 -0.000495 0.000735 -0.000149 -0.002983 0.001312 -0.001337 -0.003825 0.004754 0.004379 -0.001095 -0.000226 0.000509 -0.003638 -0.004007 0.004555 0.000063 -0.002582 -0.003042 -0.003076 0.001697 0.000201 0.001331 -0.004214 -0.003808 -0.000130 0.001144 0.002550 -0.003170 0.004080 0.000927 0.001120 -0.000608 0.002986 -0.002288 -0.002097 0.002158 -0.000753 0.001031 0.001805 -0.004089 -0.001983 0.002914 0.004232 0.003932 -0.003047 -0.002108 -0.000909 0.002001 -0.003788 0.002998 0.002788 -0.001599 -0.001552 -0.002238 0.004229 0.003912 -0.001180 0.004215 0.004820 0.001815 0.004983 -0.003111 -0.001532 -0.002107 -0.002907 0.002815 0.001579 0.000425 -0.002194 0.001524 0.003059 0.000194 
า -0.030161 0.342181 -0.052645 -0.082371 -0.385409 -0.096521 -0.110718 0.072044 -0.077711 -0.056611 0.039989 0.405004 -0.105872 -0.282932 -0.057086 0.747536 0.583944 0.150817 -0.013127 0.014130 -0.556752 0.075769 0.080605 -0.331712 0.115016 -0.657692 0.229338 0.004026 0.291862 -0.128093 0.071662 0.069642 -0.343533 0.131528 0.120313 -0.117295 -0.020858 0.400511 0.059397 0.328300 -0.159519 0.013509 0.002892 -0.006425 0.216199 -0.157763 0.200944 0.283491 0.205297 -0.118888 -0.243412 -0.425936 -0.272213 -0.257453 -0.063036 -0.016172 -0.280836 -0.408623 -0.146265 -0.133272 -0.207993 0.085929 0.052782 0.166807 0.030133 -0.652871 -0.097959 0.037208 0.066364 0.076168 0.434314 -0.017710 0.058713 -0.015118 -0.208522 -0.151410 0.287390 -0.421224 -0.251265 -0.390076 -0.024154 0.322187 -0.128363 0.040775 0.386765 0.783123 0.031181 -0.013942 0.183650 0.249896 -0.570930 0.247121 0.148668 0.126600 0.275147 0.096666 -0.040311 -0.158894 -0.062914 0.145092 
ร -0.060063 -0.201064 0.405254 0.052339 -0.040912 0.003087 0.218261 0.256956 0.184555 -0.376043 0.311747 -0.235196 -0.147509 -0.073305 0.318469 0.140834 0.624564 0.276114 0.138391 -0.215379 -0.113100 0.493546 0.751116 -0.403371 0.372731 -0.787900 0.470321 -0.147560 0.207228 0.122705 -0.057445 0.130335 -0.337602 0.178718 -0.731532 0.043971 0.254288 -0.042754 -0.187611 -0.576943 -0.243322 -0.006164 0.064593 -0.063961 0.034084 -0.016164 0.045198 -0.089868 -0.045149 0.036166 0.215203 -0.234717 -0.406131 0.198664 0.065569 -0.231946 0.084190 0.210877 0.311546 -0.715092 0.055270 0.204111 -0.218666 0.197616 -0.118594 0.107698 0.162755 -0.051709 -0.053689 -0.002899 -0.164379 0.145529 -0.340081 0.057518 0.033637 -0.005500 0.026245 -0.365243 0.175218 -0.020837 -0.093812 -0.240112 -0.097389 -0.038921 -0.109482 -0.138448 0.023544 0.043656 -0.214371 -0.136011 -0.034684 0.450128 -0.210016 0.000749 0.270882 -0.052830 -0.118056 0.188538 -0.156176 0.038591 
น -0.309942 0.173464 0.047779 -0.018556 0.074924 -0.078206 -0.214461 -0.066691 -0.099513 -0.092567 -0.206752 0.071724 -0.134990 -0.136248 -0.174433 0.170629 0.079791 0.214421 0.125440 -0.132136 -0.229178 0.223987 -0.027834 -0.253643 -0.331039 0.217588 -0.170294 0.116392 0.133531 0.071889 0.136611 0.524686 0.236505 0.032010 0.250195 -0.007565 0.315171 0.281338 0.008773 -0.307819 -0.114216 0.171408 -0.141253 -0.073806 0.158387 0.260819 0.098551 0.163721 -0.101573 -0.017583 -0.272096 -0.210910 -0.454521 -0.475359 -0.157501 -0.584965 -0.317360 -0.004901 0.399537 -0.595754 -0.159418 0.217521 0.468284 0.361057 -0.371839 0.351853 0.636443 0.057019 0.024510 -0.206718 0.105875 0.078097 -0.125620 -0.084892 -0.123590 -0.031088 0.299635 -0.225043 -0.326800 -0.440792 -0.049506 0.313468 -0.037342 -0.023034 0.319932 0.100525 -0.090999 0.089440 -0.023867 0.008717 -0.159389 0.313564 -0.111382 0.085282 0.070367 0.161483 -0.228298 -0.043439 -0.096081 -0.126033 
ก 0.271758 0.308612 -0.744327 0.486410 -0.063903 -0.033610 -0.115250 0.289419 -0.169177 -0.077859 0.417242 0.369747 -0.020691 0.215549 0.017979 0.696295 0.127846 -0.006388 -0.000344 -0.292472 0.103659 -0.211319 -0.094562 -0.163402 0.217013 -0.480430 0.073914 -0.008254 0.007349 0.022316 -0.072475 -0.001107 -0.461700 0.262484 -0.202280 -0.090422 0.305839 -0.257177 -0.272865 0.014716 -0.089234 -0.571955 0.301474 0.278401 -0.522936 -0.489955 -0.451059 -0.105037 -0.517798 0.130193 0.091994 0.409999 -0.234690 -0.025383 0.138770 -0.137203 -0.057189 0.076689 0.003297 -0.137801 -0.176254 0.202225 -0.058242 0.218206 -0.132915 0.407513 0.134233 -0.126354 0.710260 0.149376 -0.205471 -0.188575 0.260590 -0.230220 -0.256489 0.322435 -0.295488 0.173681 -0.240683 0.336722 0.577544 0.339621 0.302971 -0.027912 0.017735 0.473459 0.083891 0.013891 -0.164276 0.178854 -0.203056 0.136683 0.084812 0.254782 0.289542 0.109574 0.006498 0.334684 0.191722 -0.252840 
่ 0.193005 0.286651 -0.668913 0.146585 -0.073360 0.313609 -0.010404 0.142667 -0.049729 0.159396 -0.608224 -0.307787 -0.368661 -0.477421 0.038150 -0.342404 0.402824 0.181657 -0.003217 0.154514 -0.410240 -0.038759 0.247805 -0.115562 0.304222 0.704841 -0.488711 0.300842 -0.417255 0.058997 -0.056343 0.280055 0.510208 -0.110169 0.586764 -0.044323 0.426444 0.173605 0.068638 -0.115051 -0.039597 0.160571 0.069774 0.139671 0.412440 0.573044 -0.411519 -0.061789 0.320941 -0.391420 -0.787494 -0.623313 0.305300 -0.324555 -0.239697 -0.266689 0.003576 -0.273991 0.153843 0.388404 -0.273184 -0.313618 0.063641 0.367413 -0.176292 -0.154995 0.178533 0.266533 0.475477 0.297635 0.253818 0.121241 0.384488 -0.370359 0.372319 0.500225 -0.941321 1.022055 -0.371581 -0.165370 0.057493 0.265753 0.083430 0.256543 0.091062 -0.159273 0.244074 0.294705 0.205373 0.547513 0.121822 0.062314 -0.054363 -0.515888 -0.099178 -0.061080 0.043182 -0.227949 -0.072989 -0.668409 
ง -0.035744 0.221474 0.037431 0.208907 0.422083 0.135632 -0.039785 -0.379628 0.287418 0.017499 0.271968 0.498747 0.066226 0.201519 0.041612 0.505815 0.419455 0.150873 -0.320685 -0.116386 0.128950 0.070081 0.501350 -0.212726 0.275712 0.024166 -0.049152 -0.054344 -0.146249 0.021817 0.027314 0.353993 0.060232 0.047834 -0.047170 0.143372 0.022120 0.294641 0.257574 -0.160334 0.084471 -0.198234 -0.412132 0.155459 0.123341 0.211542 -0.106850 -0.024533 0.509553 -0.307730 0.036546 -0.100268 0.213407 0.127631 -0.068087 0.237280 0.099566 0.158331 0.264390 0.012220 0.059661 -0.187432 -0.053424 0.143204 0.033141 -0.394320 -0.080407 0.012474 -0.796340 -0.034038 0.054815 -0.123614 -0.365004 0.052182 0.014899 0.074832 -0.646629 0.361255 -0.537750 -0.142549 -0.146131 -0.153996 0.097572 0.141488 0.295052 0.091557 0.055928 0.056046 0.366545 0.346607 0.202647 0.305193 -0.211157 0.061292 0.178548 0.046563 -0.116298 0.228086 -0.330470 0.048234 
อ 0.299462 0.297766 -0.292760 -0.109545 0.089305 0.506615 -0.583272 -0.436832 0.067122 -0.034501 0.353498 0.454894 -0.002674 0.103992 0.331993 -0.306464 0.969146 -0.022816 0.081412 0.450953 -0.219246 -0.050932 -0.294939 0.135988 -0.358489 -0.519130 -0.445356 0.430328 0.175486 -0.019059 -0.018387 0.546490 -0.391940 0.196277 -0.104145 -0.046480 0.321919 0.282511 -0.039054 -0.184914 -0.331361 -0.239003 -0.088534 0.116499 0.040495 0.234350 0.189861 0.164877 -0.045701 0.202725 0.421202 0.054553 -0.764373 -0.265726 0.223002 -0.096620 -0.150155 -0.059278 0.062713 -0.187446 0.072065 0.385947 0.424677 0.612214 -0.160729 0.320070 0.575534 -0.338512 -0.169273 -0.091198 0.184494 -0.105592 -0.449406 -0.170432 -0.383028 0.105433 -0.232734 0.011287 0.031661 -0.455349 0.039689 0.235550 -0.079538 0.108202 0.092242 0.361221 0.316090 0.247184 -0.305488 0.168269 -0.488743 -0.553439 0.084548 0.376522 -0.236922 -0.271747 -0.043160 -0.110038 0.289902 0.123137 
เ 0.269532 0.174887 -0.273883 -0.015643 0.063655 0.179374 -0.280053 -0.478750 -0.281693 0.590515 -0.158767 -0.283417 -0.101567 -0.269043 0.030293 -0.133174 1.156653 -0.333974 -0.291032 -0.119063 -0.180525 -0.058140 -0.236545 0.133302 0.015927 -0.508482 -0.160401 0.308123 -0.076169 0.088746 -0.128425 0.031389 -0.685855 0.207404 0.368097 -0.059942 -0.200842 0.015475 0.116181 0.452224 -0.245967 -0.224431 -0.168329 0.102543 0.120951 -0.253987 0.302653 -0.077865 -0.090849 0.154270 0.463763 -0.023547 0.074144 0.113119 0.016197 0.551157 0.142987 0.046107 -0.141949 0.049491 0.110479 0.260834 0.033279 0.196674 0.334630 0.263442 0.185130 -0.037333 -0.371288 0.216928 0.260265 -0.096858 -0.147220 0.070517 -0.116174 -0.239829 -0.382390 0.230251 -0.158808 -0.493585 -0.192115 0.170783 -0.405496 0.054461 0.055342 0.378460 0.409808 0.143055 0.251928 -0.137332 -0.560772 0.471766 -0.054822 0.056787 0.198503 0.233178 -0.103337 0.056615 -0.041050 0.136824 
ม 0.136744 0.377191 -0.601120 0.271765 -0.528478 -0.028023 0.073765 -0.279229 0.389416 -0.402931 0.252292 -0.077572 -0.227273 -0.046781 -0.021365 -0.256801 0.085235 -0.135892 0.467174 0.778765 -0.138314 -0.136338 0.461246 -0.412465 0.373503 -0.315425 -0.024871 0.093117 0.059075 -0.170089 -0.258985 0.107289 -0.631319 0.297705 0.254233 0.290560 -0.157571 -0.006539 -0.023575 0.208609 0.090827 -0.201869 -0.081787 0.331906 -0.157802 0.117470 -0.163794 0.170335 0.106214 -0.237761 -0.164593 -0.283153 -0.131529 0.020778 0.016307 -0.271932 0.026189 -0.118063 -0.091253 -0.078919 -0.140348 0.021974 0.173523 -0.125485 -0.014588 0.505631 0.180585 -0.354226 0.473693 0.206358 0.230083 -0.098457 -0.259990 -0.086762 0.095843 0.210103 0.096738 0.369236 -0.408444 -0.207179 0.040953 0.001331 0.306382 -0.131814 0.281811 0.090483 0.094246 0.213589 0.229222 0.352327 0.167370 -0.039075 -0.064213 0.076823 0.016220 0.249834 -0.135920 -0.005569 -0.006738 -0.144257 
ั -0.069491 -0.370487 0.636284 -0.182098 -0.032135 -0.201095 0.287936 0.623209 -0.180479 -0.052311 -0.019040 -0.126335 0.220755 0.262599 -0.197623 0.940035 0.010950 -0.057640 0.185370 -0.015282 -0.292680 -0.006949 -0.037887 -0.166840 -0.147111 -0.405896 -0.197323 0.120045 -0.093772 0.212987 0.236758 0.002693 -0.208078 -0.090391 -0.463463 0.169748 0.182582 0.324802 0.128239 -0.179559 -0.201861 -0.337705 0.136640 -0.309903 0.109864 0.596109 0.076698 -0.027897 0.488824 0.297522 0.116479 0.137251 -0.055760 -0.099895 0.073616 0.039557 -0.301119 0.130739 0.102128 -0.279413 -0.040232 -0.275079 0.000972 -0.010355 -0.080886 -0.474323 -0.142518 0.173636 0.311168 -0.014651 0.308691 -0.278980 0.379228 -0.273037 -0.277155 -0.149004 0.150008 -0.530218 -0.055477 0.096314 -0.009099 0.251145 -0.030647 0.084908 0.537867 1.354715 0.144575 -0.135171 0.077228 -0.200753 -0.211716 0.034585 0.265029 0.102480 -0.119952 -0.200675 -0.387203 0.035433 0.255882 0.157290 
ว 0.260823 0.389856 -0.547255 0.104703 -0.234166 -0.008444 0.051178 0.321565 -0.107524 0.193720 0.162609 0.447053 0.495358 0.061689 0.184758 -0.048012 -0.365378 -0.184602 -0.037834 0.048876 -0.069628 -0.140167 -0.175832 -0.119550 -0.028331 -0.004436 -0.106680 -0.019562 -0.148611 0.125380 0.081117 -0.091152 -0.705188 0.400373 -0.346001 0.088805 0.210236 -0.220543 0.218612 -0.287858 0.203232 0.185100 -0.034951 -0.215335 0.097266 0.267184 -0.284494 0.072808 0.067348 -0.141911 0.038488 -0.253176 -0.075409 -0.183834 -0.119426 -0.216618 0.126666 0.118656 0.165438 -0.047740 -0.077159 0.107402 0.332128 0.318664 0.002008 -0.012379 -0.042171 0.108643 -0.474240 -0.069951 -0.004528 -0.048083 0.244456 -0.107733 -0.155701 0.030416 -0.257771 0.087403 0.020812 0.007259 0.391193 0.318563 0.139496 0.092051 0.190280 0.489188 0.040431 -0.102829 0.354326 -0.082294 -0.273006 0.256850 0.317955 0.273723 0.198008 -0.046589 -0.084427 -0.021344 0.111050 0.072791 
ย 0.075669 -0.093129 0.031453 -0.175748 -0.157866 0.175864 -0.023901 -0.287783 0.073155 0.234664 0.046169 -0.470213 0.064834 -0.114278 0.163697 -0.858237 0.033708 -0.082782 0.547521 0.598581 -0.251182 0.259354 0.414064 -0.566959 0.259669 0.082179 -0.069902 0.197128 -0.026483 0.191312 -0.153648 0.208990 -0.389094 0.167492 -0.004744 0.172695 -0.080967 -0.369215 -0.172038 0.050620 0.088745 0.131422 -0.161966 -0.060815 -0.250952 -0.107064 -0.130156 0.061425 -0.164026 -0.112944 0.304404 -0.279266 -0.175139 0.008703 -0.006351 -0.461400 0.028080 0.151528 0.311605 -0.258150 0.051885 0.347116 0.585459 0.307095 0.118375 0.963892 0.209546 -0.284973 0.234005 0.349157 0.088025 -0.072310 -0.147487 -0.378512 0.338432 0.120729 -0.052563 0.470894 -0.337394 -0.433002 0.355136 0.038317 0.096212 0.001346 -0.010726 -0.548695 0.054922 0.234093 -0.020131 -0.337770 0.091628 0.095066 -0.012903 -0.405340 0.061950 0.279798 0.238196 -0.186524 0.024523 -0.108378 
้ 0.115103 0.238085 -0.334703 -0.028625 -0.411048 -0.006085 -0.265013 0.314287 -0.118779 0.161029 -0.398558 -0.298754 0.130409 0.390543 -0.031180 -0.431054 -0.305289 -0.105230 0.142273 0.279924 -0.575725 -0.231601 0.096991 -0.556460 -0.340868 0.471922 -0.529576 0.278996 -0.136177 0.144967 -0.078404 0.383104 0.582329 -0.334199 0.189932 0.125637 0.249276 0.170118 -0.025102 -0.098894 0.094559 0.079887 0.027793 -0.244243 -0.118282 0.670017 -0.098354 0.296847 0.103168 -0.044208 0.008303 -0.623281 -0.207434 -0.367803 0.153266 -0.696778 -0.478526 -0.366994 0.320481 0.079512 -0.010027 0.249362 0.265306 0.403325 -0.050241 0.141077 0.229698 0.019415 0.792442 0.273771 0.420612 -0.294041 0.458613 -1.024529 0.199720 -0.087671 0.002429 0.671177 -0.668415 -0.273154 0.574900 0.356661 0.209405 0.312237 0.233582 0.321591 -0.008570 0.098806 -0.202809 -0.071307 -0.115560 -0.328616 0.151577 -0.272187 -0.074255 0.152175 -0.036578 -0.226533 0.313648 -0.139192 
ล -0.250245 -0.310758 0.524220 -0.304167 0.364225 -0.128337 -0.029262 0.023745 0.185850 -0.170968 -0.250603 -0.027606 -0.240534 -0.033336 -0.031898 -0.081638 0.470654 0.234110 0.137647 0.046800 -0.259943 0.303982 0.403319 -0.593498 0.080860 -0.146383 0.075715 -0.136201 0.072537 0.019476 0.219861 0.237213 -0.387428 0.460928 -0.527472 0.150673 0.334425 0.083795 0.037550 -0.775393 0.166989 -0.128159 -0.184270 0.003499 -0.040069 0.202567 -0.110184 -0.182670 0.247012 -0.085740 -0.155640 0.283766 -0.173391 -0.065483 -0.080189 0.108333 0.142762 0.348660 0.187665 -0.397652 0.073993 0.075667 0.213262 0.095786 -0.397979 0.554858 0.437432 -0.207998 0.233715 -0.046699 0.022463 0.005155 -0.264527 0.356114 -0.098111 0.209034 0.109116 -0.017970 -0.272794 0.047919 -0.134167 -0.239299 -0.124307 0.073465 0.093912 -0.416140 -0.187517 0.002490 -0.014202 0.305904 0.139320 0.313739 -0.026776 0.155271 0.094711 0.239225 0.018657 0.130639 -0.105947 -0.257754 
ด -0.098972 0.434698 -0.244998 -0.076642 -0.200406 -0.312841 0.022293 0.271112 0.598593 -0.586787 -0.256311 -0.007712 0.562741 0.114959 0.108952 -0.521649 -0.252946 0.145909 0.388361 0.412840 -0.440811 0.306808 0.237618 -0.559013 0.094652 0.125403 0.197100 -0.249681 0.269153 0.160302 0.193548 0.039145 0.095633 0.103594 -0.118521 -0.087705 0.178287 -0.259674 0.315683 -0.706873 0.358486 0.544329 -0.241762 -0.237120 0.180933 -0.402123 0.027040 0.013211 -0.017660 -0.104734 0.180552 0.234306 -0.086807 -0.145368 -0.082787 -0.218937 0.018821 0.236567 0.715483 -0.862762 0.087767 0.200039 0.788032 0.569863 -0.033237 0.202309 0.842153 -0.043926 0.573689 0.415354 0.395256 -0.184518 -0.034983 -0.392771 0.187052 -0.042333 -0.161950 -0.104395 -0.276370 -0.409326 0.280720 0.178466 0.057036 -0.023177 0.177265 -0.084235 -0.219389 -0.061900 0.184264 -0.177111 0.057869 -0.194868 0.203198 -0.031516 -0.085426 -0.166663 0.149370 -0.404604 -0.170571 0.075095 
ี 0.254841 0.316396 -0.899279 0.077910 -0.300408 0.241861 -0.018524 -0.209488 -0.241137 0.368495 0.147765 0.138240 -0.005321 -0.245363 -0.221033 -0.236867 -0.261084 0.068153 0.143968 -0.285781 -0.306652 -0.116093 -0.158852 -0.467124 0.214398 0.101736 -0.046177 0.112868 0.152095 0.045062 0.236178 -0.146754 0.578570 -0.325931 0.266578 -0.226286 0.231225 0.058528 0.176961 0.330833 0.091280 -0.044664 0.198021 -0.089464 0.114652 0.464016 -0.281829 -0.070999 0.105650 -0.337845 -0.369881 -0.514115 -0.095010 -0.392907 -0.236071 -0.316096 0.078970 -0.143702 -0.071406 0.015643 -0.117516 0.218645 -0.073296 0.202525 0.179756 -0.276920 -0.182213 0.001944 -0.363415 -0.136048 -0.068472 -0.030592 0.627628 -0.391134 -0.105905 -0.160087 -0.002111 0.098076 -0.673304 -0.146616 0.476506 0.338012 0.496441 0.017261 -0.079553 0.549977 0.120205 -0.238372 0.334719 0.174934 -0.400168 -0.442962 0.093076 0.238321 0.224636 0.030781 -0.121719 0.197057 -0.001633 0.007067 
ส 0.162518 0.020490 -0.022678 0.040164 -0.189504 -0.108935 0.347500 0.110440 0.285191 0.303687 0.418051 0.484639 0.189858 0.201090 0.059364 0.103311 -0.420098 -0.214204 0.363298 0.362184 0.358815 0.182921 0.084149 0.165565 -0.106441 -0.054338 0.011281 -0.160326 0.155984 -0.051745 -0.056714 -0.312095 -0.509152 0.151923 -0.377125 0.261465 -0.342410 -0.144158 -0.124631 0.206280 0.241193 -0.006412 -0.043748 0.042630 -0.067631 -0.007044 0.211363 -0.038049 -0.210352 0.012408 0.037294 -0.125670 0.017745 -0.038892 -0.269984 -0.254028 0.449721 0.408726 0.285254 -0.618584 0.274438 0.016497 0.059624 -0.181103 -0.052629 0.464156 0.190546 -0.207498 0.063531 0.064876 0.028183 -0.027814 -0.204086 0.108635 0.116591 -0.480631 -0.492492 0.071910 -0.295215 0.063760 0.014178 0.131367 0.261978 -0.172020 -0.347348 -0.434614 0.172039 -0.055060 -0.143285 -0.224905 0.036032 0.255608 -0.056251 0.089198 0.056509 -0.028588 0.129315 -0.002301 -0.089002 0.174905 
ท -0.104228 0.283528 -0.250743 0.278391 -0.282802 -0.301170 0.060126 -0.201657 -0.108965 -0.176158 -0.261805 -0.184683 -0.020523 -0.348605 -0.049856 0.046899 0.010930 -0.018215 -0.110083 -0.005434 -0.399481 0.034611 0.036098 -0.390872 0.119561 -0.677312 0.156407 0.022015 0.358457 -0.220172 0.007536 -0.004112 -0.636587 0.381410 0.327983 -0.110770 0.166883 -0.093197 -0.032445 -0.006632 0.328935 0.032164 0.002875 0.171927 -0.015154 -0.500535 0.152032 0.073093 0.085046 -0.233308 -0.165622 -0.085541 -0.266362 -0.296960 -0.089016 -0.276091 0.133345 0.068749 0.428128 -0.965626 -0.102181 0.318617 0.245806 0.133093 -0.216823 0.539067 0.678360 -0.255384 0.204339 -0.086300 0.175031 -0.043768 -0.282433 0.505678 -0.056842 0.047304 0.265986 -0.166580 -0.521283 -0.212409 0.136408 0.228089 0.116518 0.103461 0.121258 0.108092 -0.082062 -0.074831 -0.414014 0.320749 -0.147017 -0.338757 0.173417 -0.143330 -0.106250 -0.059884 0.529099 -0.355044 0.202829 -0.024402 
ิ -0.162512 -0.564062 0.778452 -0.239711 0.085069 0.171008 0.176015 0.032773 -0.531252 0.351186 0.386498 0.204142 -0.116632 -0.293612 -0.004122 0.386944 -0.049290 0.150476 0.231811 -0.020970 -0.157705 0.287359 0.058227 -0.068616 -0.110918 -0.302350 0.237000 0.006768 0.211893 -0.027994 0.157406 -0.098506 0.114741 -0.186096 -0.306012 0.008475 -0.128637 0.072975 -0.211642 0.213430 -0.208169 0.043639 0.144108 -0.210973 -0.057474 -0.063563 0.180170 0.101941 0.023548 0.161823 -0.092908 -0.159646 -0.253654 -0.041607 -0.070866 -0.198024 -0.172473 -0.148978 -0.110157 -0.178042 -0.089042 0.050504 -0.106477 -0.145905 -0.025258 -0.427596 -0.516143 0.057200 0.461453 0.111542 0.148044 0.076954 0.227160 -0.257871 -0.097480 -0.311761 0.479191 -0.612240 0.277052 -0.096922 -0.012318 0.154462 -0.070758 -0.075331 0.250032 0.667822 0.019627 -0.164063 0.321203 -0.412240 -0.291441 0.275942 -0.010172 0.237795 0.203344 -0.058664 -0.285717 0.102897 -0.043512 0.342851 
ต -0.131418 0.092825 0.039289 -0.123399 -0.190064 -0.301650 -0.154950 0.142860 0.209499 0.107843 -0.251170 0.022751 -0.028930 0.480675 -0.332917 -0.154677 -0.817649 -0.238695 -0.008065 0.269722 -0.009217 0.069506 0.001047 -0.160011 -0.292996 -0.034074 0.028025 -0.088327 0.002292 -0.033716 0.048327 -0.093312 -0.478830 0.314171 0.043340 0.093568 -0.052662 -0.214941 -0.003320 -0.096620 0.199603 0.226628 0.023293 -0.038386 -0.003905 0.378928 0.292841 0.101353 -0.027957 0.000034 -0.271805 -0.278440 0.076835 -0.194679 -0.173680 -0.349547 0.160373 0.269920 0.113707 -0.426362 0.242576 0.222699 -0.079914 -0.274246 -0.116114 0.659035 0.616946 -0.234930 0.185776 -0.191820 -0.191733 0.025840 0.021202 0.312782 0.109767 -0.625247 0.315757 0.131329 -0.750089 -0.197711 0.042230 0.171221 0.135763 -0.105836 -0.063249 0.032780 -0.024510 -0.360700 0.215610 -0.326663 -0.065532 0.204417 -0.060107 0.356514 0.046020 0.163190 -0.041463 0.020312 -0.159196 0.290623 
ป 0.391517 0.474169 -0.538803 -0.291892 -0.228014 -0.121763 -0.423129 0.285554 0.125109 -0.106753 -0.315427 0.253947 0.059880 0.418939 -0.025826 -0.921510 0.239528 -0.181719 -0.394531 0.038277 -0.439826 -0.181452 -0.417256 -0.543250 -0.310997 -0.554448 -0.302220 0.178308 0.200538 -0.181555 0.364417 0.041656 -1.157619 0.845464 -0.141395 0.002091 0.196576 0.344103 0.495818 -0.208438 0.085413 -0.236194 -0.182974 -0.118062 0.200590 0.851957 0.254371 0.002306 0.494296 -0.133287 -0.131775 -0.027664 -0.408706 -0.428002 -0.114829 0.205251 -0.099815 -0.017805 -0.348315 0.139251 -0.109505 0.590767 0.218460 0.207430 -0.099490 0.286101 0.433087 -0.244409 1.383060 0.413278 1.031079 -0.156906 0.476561 -0.285240 -0.696091 -0.279946 0.598462 -0.279781 0.299040 0.095568 0.027482 0.133639 -0.253977 -0.097109 -0.186198 0.070409 -0.276452 -0.124214 -0.045027 0.219166 -0.690243 -0.034415 0.356847 0.643003 0.181656 0.334985 -0.149397 0.243097 0.009196 0.334087 
ค 0.129972 0.152530 -0.079945 -0.104979 -0.223724 0.072806 -0.059151 -0.107596 -0.072431 -0.168889 -0.364706 -0.488279 -0.290734 -0.107936 0.028560 0.085666 0.016556 0.049312 0.182599 0.233860 0.117968 0.202059 0.018422 0.231532 -0.034464 0.003851 -0.092313 0.237795 -0.071659 -0.101383 -0.200427 0.123690 -0.482039 0.032075 0.199839 0.050709 -0.199965 0.239565 -0.309339 0.414460 -0.408179 0.163585 0.041886 -0.106583 0.230075 -0.138770 0.149786 0.153272 -0.030438 0.077574 -0.342124 -0.424548 -0.033091 -0.209099 -0.149577 0.036746 -0.051307 -0.287611 -0.253873 0.103691 0.018562 -0.222119 0.268778 -0.042148 -0.059808 0.194913 0.067502 -0.080769 0.504259 0.131194 0.255185 0.224716 -0.047439 -0.008458 -0.060132 0.050662 -0.634494 0.267661 -0.266711 -0.484051 -0.339858 0.470092 -0.197843 0.034531 0.266628 0.097839 0.255646 0.215405 0.326831 0.198859 -0.324316 0.820247 -0.082293 0.235886 0.188875 0.192835 -0.358458 0.102784 -0.040157 -0.054481 
ะ -0.279426 -0.566098 0.537895 -0.407434 0.135518 0.015757 0.357716 0.280507 -0.016400 0.170978 -0.246258 -0.033930 -0.031681 -0.556368 0.065248 0.288005 0.634524 -0.159975 0.291744 -0.120670 0.052557 -0.037613 -0.022614 0.215086 0.286668 0.012629 0.074046 -0.090207 -0.068024 0.198507 0.115975 -0.069915 0.072735 0.124976 -0.595481 0.354187 0.334317 -0.381609 -0.049160 -0.757467 0.086116 -0.199535 0.058633 0.161980 -0.252990 -0.133154 -0.385440 -0.220531 -0.422400 0.139401 -0.139174 0.432207 0.130233 -0.167329 -0.133697 -0.178722 0.185201 0.340737 0.352576 -0.242808 -0.367560 -0.270799 0.402834 0.172558 -0.291437 0.389629 0.169808 0.406479 -0.266296 0.093020 -0.261954 -0.092171 0.131844 0.483274 0.152255 0.361756 0.223947 -0.219144 -0.092593 0.002497 0.083176 -0.026814 -0.017107 0.144231 0.536758 0.329172 0.248728 0.147081 0.359484 -0.075822 0.129700 0.537307 0.007818 -0.097494 0.125417 0.206697 -0.545258 0.113055 -0.038308 -0.516219 
บ -0.181828 -0.298012 0.322148 0.022610 0.494260 -0.015163 -0.134940 0.004487 -0.296825 -0.088830 -0.246203 -0.549854 -0.027823 0.250660 0.004756 0.166437 -0.002970 0.038468 -0.325580 -0.531210 -0.016137 0.056592 0.273725 -0.273890 0.002680 0.056238 -0.294392 0.124908 -0.333521 0.160560 0.021361 0.346782 -0.248905 0.177970 -0.010152 0.117051 0.153626 0.039372 0.047040 -0.342693 -0.142355 -0.119212 -0.039057 -0.161187 -0.113875 0.312194 -0.134828 -0.115070 0.040248 0.112658 0.233544 0.308399 0.087101 0.142781 0.193414 0.140391 -0.149048 0.190667 0.279554 -0.110552 -0.056655 0.039661 0.036315 0.154577 -0.212965 0.571262 0.550819 0.112931 0.778768 0.203181 0.166378 -0.064801 0.163244 -0.344490 -0.075589 0.282968 -0.209168 0.311383 -0.023309 0.171732 0.006089 -0.102202 -0.151060 0.037245 0.075668 -0.032959 -0.082686 0.060598 0.019036 -0.048514 0.068070 0.589679 -0.142360 -0.000836 0.090431 0.169212 -0.348757 0.442327 -0.003357 -0.181146 
ห 0.219186 0.391145 -0.434315 -0.124618 -0.229819 -0.147781 -0.068936 0.138541 -0.179151 -0.094255 -0.049184 0.053560 0.197925 0.035055 0.170432 0.545578 -0.481422 0.228935 -0.102371 0.065048 0.107006 -0.025615 0.133302 -0.366978 0.174924 0.174956 -0.172870 0.107969 -0.262948 0.068250 -0.096408 0.304409 -0.823018 0.315879 0.078649 0.068830 0.090214 0.234809 -0.141868 0.322673 0.054025 0.080966 -0.125179 -0.330814 -0.041901 -0.110060 -0.213124 0.146725 0.169944 -0.222038 0.025856 -0.257401 0.020158 -0.184993 -0.043526 0.084642 -0.077828 -0.175679 0.116954 0.087839 0.044378 0.046571 0.456889 0.367134 -0.074867 0.278231 -0.015824 -0.022172 -0.021001 -0.056052 0.144286 -0.029625 0.252908 -0.224385 -0.201821 0.463576 -0.661242 0.473189 -0.478733 -0.015214 0.252547 0.394200 0.098515 0.286750 0.329164 0.215338 -0.041740 0.063418 0.248120 0.383493 -0.236489 0.659785 0.293795 0.183736 0.233522 0.173372 0.150355 0.106376 0.245630 -0.119412 
แ -0.224438 -0.006112 0.556475 -0.231922 -0.011765 -0.343502 -0.187229 0.140531 -0.261869 0.179489 -0.372605 -0.091863 -0.257265 -0.117815 -0.353878 0.744635 0.505221 0.039031 -0.434801 0.007422 -0.283277 -0.180112 -0.344845 -0.141878 -0.134774 -0.277486 -0.279860 0.149486 0.054497 -0.105546 -0.024288 0.196784 -0.994104 0.561606 0.048114 -0.026184 0.236739 0.363620 0.129555 -0.113696 -0.036103 -0.126697 0.116773 -0.287265 0.183259 0.585605 0.167225 -0.177923 0.434569 -0.107139 -0.030728 0.172929 0.126326 -0.135082 0.240935 0.377496 -0.425188 -0.315514 -0.229424 0.181213 -0.099225 0.124698 -0.330801 -0.269641 0.015168 0.197697 0.163466 -0.046529 0.559741 -0.175386 0.511805 -0.105230 0.223673 -0.035995 -0.321646 -0.168891 -0.011480 -0.045519 -0.596587 -0.170444 -0.160954 0.077110 -0.151537 0.307063 -0.245394 -0.002288 -0.157296 -0.038178 -0.707210 0.424224 -0.263017 -0.533893 0.184973 -0.150960 -0.165035 0.045482 0.186843 -0.050932 0.323488 -0.202834 
์ -0.177727 -0.837258 1.035450 -0.092344 0.621315 0.355116 -0.194397 -0.444437 -0.500546 0.829023 0.345598 0.273002 -0.472331 0.063216 -0.021261 -0.470927 -0.091490 -0.237615 -0.082215 -0.067392 -0.372259 0.332906 0.374588 -0.304799 -0.140004 -0.841056 0.695177 -0.289679 0.220160 -0.140875 0.193088 -0.556909 0.259760 0.014613 -0.489571 -0.133058 0.182225 -0.494381 -0.216942 -0.439378 0.095490 -0.326884 0.341865 0.372519 -0.589194 -0.042895 0.423547 -0.103283 -0.272473 0.325960 -0.233175 0.313221 -0.022091 0.133012 0.087743 -0.171226 0.171452 -0.071492 -0.115059 0.170632 0.079269 0.223916 -0.981092 -0.385602 0.001036 -0.615404 -0.218278 -0.108022 1.281450 0.318174 -0.115311 0.101299 0.284166 -0.169031 0.167841 -0.730025 0.514104 0.288818 0.437626 0.315483 0.170208 -0.276393 -0.067748 0.036745 -0.269384 0.432538 0.113067 -0.442108 0.222770 -0.600535 0.070951 -0.507772 -0.448096 0.456019 0.124531 -0.260097 -0.354462 0.513138 -0.318343 0.535212 
จ -0.168520 -0.053109 0.137086 0.095968 -0.019525 -0.211138 -0.084592 0.064694 0.074265 -0.400512 -0.511598 -0.828800 0.306445 0.544318 0.221468 -0.089548 -0.592265 -0.046475 -0.374719 -0.626434 -0.181444 0.345685 0.592334 -0.565074 0.244366 -0.429312 0.050727 -0.009862 -0.009695 0.109979 -0.081482 0.198525 -0.162572 0.053939 -0.009492 -0.024067 0.213443 -0.154740 -0.239523 -0.274191 -0.064292 0.030701 0.114577 -0.070549 -0.258536 -0.215596 0.104119 0.058979 -0.305398 0.070650 0.280448 0.153825 0.002109 -0.090461 0.262931 -0.186324 -0.087237 0.064622 0.621002 -0.645973 -0.014571 0.126262 0.159087 0.373965 -0.100585 0.688013 1.027852 0.022833 0.602916 0.173234 0.104696 -0.100961 0.096074 -0.192382 0.143625 0.128295 -0.667711 0.547564 -0.666008 -0.240878 0.299452 0.312446 0.013735 0.241085 -0.051066 -0.131948 0.019744 0.058220 -0.465839 -0.030476 -0.146522 0.227883 -0.104509 -0.099224 0.128694 -0.023783 -0.113642 0.213524 0.076426 -0.132918 
ข 0.240107 0.518167 -0.710445 0.287059 -0.236983 -0.142083 -0.134558 -0.003965 0.276563 -0.598891 -0.040744 -0.240843 -0.054383 0.149593 0.048466 0.189267 0.213868 0.356145 -0.298309 -0.397596 0.027056 0.005069 -0.096281 -0.056990 0.122081 -0.205822 -0.116579 0.182247 0.165864 -0.163312 -0.043532 0.290742 0.072454 -0.059686 0.275685 -0.205656 0.206640 0.396661 0.000597 0.107208 -0.124756 -0.303212 -0.071707 -0.052380 0.045633 -0.110540 0.009496 -0.154907 0.374255 -0.182810 0.132025 -0.073871 -0.202094 -0.096295 -0.085224 0.087792 -0.120301 -0.062545 0.200006 -0.389468 0.129979 0.227671 -0.093340 0.268460 0.052644 0.059199 0.156301 -0.138744 0.650868 0.250099 0.440153 -0.220927 -0.006811 -0.491945 -0.116095 -0.056698 -0.815140 0.158648 -0.834782 -0.246799 0.163558 0.197470 0.126354 0.067536 0.119773 0.582978 0.145413 -0.121133 0.284620 0.320962 -0.194037 -0.103607 -0.137662 0.439044 0.237613 -0.021582 0.046758 0.283654 -0.026135 -0.009291 
ื 0.628283 0.378386 -0.679379 0.088933 -0.554213 0.233811 0.328382 0.385692 0.506528 -0.280055 0.202175 -0.012777 -0.003941 0.067722 0.431290 -0.987261 0.375424 0.093525 -0.093336 -0.040240 0.085082 -0.397564 -0.457029 0.568516 0.143692 -0.039713 -0.478133 0.428664 -0.137406 -0.088070 -0.160590 0.128030 -0.105203 0.111224 -0.479484 0.296868 0.179678 0.076164 -0.096145 -0.031651 -0.113783 -0.624380 -0.011534 0.277819 -0.078278 0.318315 -0.416807 -0.145295 0.361512 -0.117531 0.116688 -0.081378 -0.283253 0.084951 -0.073594 0.065881 0.197875 0.070655 -0.077016 0.003268 0.036900 0.048968 -0.009437 0.331106 0.034768 -0.235367 -0.779886 -0.284335 0.119740 0.407411 0.224417 -0.132629 -0.070463 -0.344105 0.083685 0.047150 -1.045362 0.719474 -1.022859 -0.470741 0.378047 0.248047 0.221521 0.274388 0.691468 1.351675 0.622586 -0.009895 1.182006 0.093796 -0.369501 0.792827 -0.055507 0.588811 0.661594 0.060316 -0.418604 0.273521 -0.179740 -0.162670 
ใ -0.021064 0.449525 0.001894 -0.004778 -0.268239 -0.331544 0.209552 0.455633 0.223397 -0.482864 -0.510965 -0.218913 0.272821 -0.033201 -0.193766 0.536917 0.157707 0.025653 0.297071 0.135641 -0.456911 0.041036 -0.210905 -0.019440 -0.076582 0.030357 -0.204428 0.106377 0.009237 0.223908 0.098106 0.099547 -0.107698 -0.132568 -0.027832 -0.013376 0.267344 0.320219 0.263981 -0.346194 -0.193530 0.219497 -0.023140 -0.271567 0.595636 0.301956 0.023020 0.118490 0.404558 0.067353 -0.132022 -0.075427 0.022229 -0.436375 -0.024867 -0.050857 -0.390810 -0.109538 0.290364 -0.311072 -0.131480 -0.350334 0.663851 0.403260 -0.002373 -0.482232 0.215780 0.251547 -0.401496 -0.121145 0.443903 -0.112667 0.072139 -0.177586 -0.153329 0.087379 -0.505571 -0.160212 -0.296707 -0.510732 -0.098350 0.573927 -0.090800 0.221689 0.556301 0.775400 0.138666 0.192022 0.007848 0.258299 -0.294628 0.107101 0.338213 -0.062011 -0.103151 -0.230263 -0.230309 -0.399645 0.135858 -0.217839 
ช -0.017631 0.187536 -0.205608 0.223993 -0.387291 -0.031029 -0.035607 -0.381750 -0.339266 -0.195486 0.176338 -0.446859 0.080550 -0.290985 0.226510 -0.199222 -0.325383 -0.200658 -0.188550 -0.287482 0.053780 0.089019 0.098166 0.029950 0.184236 -0.577957 0.358663 0.019989 0.151132 -0.029418 -0.355256 -0.062873 -0.620649 0.096284 0.125543 -0.106563 -0.023889 -0.338723 -0.220816 -0.025436 -0.189191 0.523105 0.186432 -0.288149 0.041384 -0.162984 0.081776 0.237632 -0.269974 -0.072480 0.186649 -0.759606 -0.317976 -0.123554 0.175113 -0.468977 -0.138250 -0.353910 0.172401 -0.428700 -0.132243 0.370610 0.226380 0.111690 0.242046 0.569800 0.414179 0.031257 -0.254961 -0.171538 -0.077836 0.212089 -0.049671 -0.159198 0.041892 -0.020213 0.068289 -0.063923 0.061473 -0.435894 0.081291 0.192959 0.005851 0.082840 0.099349 0.291502 0.086318 0.049982 0.082836 -0.155000 -0.361551 0.155607 -0.068259 0.337877 0.236990 0.011186 -0.467151 0.162620 0.148738 0.072940 
็ 0.302788 -0.126613 -0.081408 -0.074905 0.020936 0.433087 0.069629 0.253267 0.194180 0.266173 0.052902 0.328590 -0.066128 -0.299688 0.403083 -0.674080 1.380222 -0.253420 -0.296128 -0.398502 0.319029 -0.327386 -0.447506 1.039018 0.093374 -0.074626 0.101224 -0.000596 0.135113 0.001770 0.053255 -0.331892 0.987013 -0.441796 -0.769090 0.017810 0.349683 -0.209471 0.102023 -1.000220 -0.097640 -0.076803 0.207036 0.174874 0.150082 0.554430 -0.185934 -0.308237 0.096028 -0.046532 0.019744 -0.382091 -0.261337 -0.103294 -0.156167 -0.464497 0.332975 0.182420 0.475985 -0.305960 -0.056531 0.050136 -0.237667 0.384197 -0.061893 0.025754 0.321534 0.206417 0.163600 0.413821 0.030668 -0.016114 0.077848 -0.228994 0.273417 -0.054696 -0.743153 0.209978 0.049228 -0.003075 0.235089 -0.140555 0.087997 0.185709 -0.051454 0.304171 0.485609 0.124748 -0.033460 0.014042 -0.033778 -0.384341 -0.222428 -0.036981 -0.023213 -0.232333 -0.538425 0.168547 -0.152445 -0.211530 
พ 0.039566 0.086245 0.223650 -0.096268 -0.234649 0.085326 0.440542 -0.210032 0.198072 -0.524804 0.754861 0.280509 0.063240 -0.681550 0.225928 0.249604 0.026454 0.219525 0.852946 1.046714 0.047265 0.428541 0.019284 0.223815 0.080560 -0.416588 0.140968 -0.097435 0.383644 -0.168041 -0.175994 -0.087400 -1.031330 0.319948 -0.398306 0.047206 -0.132281 0.055896 -0.029828 -0.110151 -0.289661 0.435266 0.028214 -0.384549 0.448325 -0.049590 0.166875 -0.012806 0.045007 0.027234 0.157003 -0.032724 -0.397070 0.054788 0.013887 0.133793 0.045752 -0.179840 -0.223726 -0.403990 -0.030208 -0.134084 0.445974 -0.149459 0.235119 -0.163620 -0.276202 -0.146084 0.080847 -0.087600 0.301041 0.238047 -0.390105 -0.223652 -0.230258 -0.053980 -0.220346 -0.848014 0.694048 -0.397298 -0.523479 0.103108 -0.014786 -0.272069 0.082021 0.301120 0.117972 0.077714 0.506778 0.042522 -0.162256 -0.161393 0.112251 0.762961 0.008334 -0.457582 -0.364672 -0.040938 0.063194 0.113034 
ศ -0.040084 0.092149 -1.264299 1.129955 0.470240 0.113761 0.092719 -0.301937 -0.701926 0.418467 0.554065 -0.082532 -0.001744 -0.084211 -0.539768 1.029016 -0.593284 -0.387584 0.395616 0.021056 0.823099 -0.050667 0.474521 -0.104301 0.798733 0.085348 0.880548 -0.512345 -0.264754 0.192352 0.040044 -0.826889 0.619471 -0.446128 0.366480 -0.438906 -0.084661 -0.989231 0.699967 -0.887219 -0.048895 0.634977 0.473269 0.036291 0.296825 0.086581 -0.549010 -0.214749 -0.534443 -0.032702 -0.000706 -0.372473 0.583178 0.507560 0.223059 -0.112145 0.140519 0.096732 -0.438236 0.734561 -0.249036 -0.487033 -0.797619 -0.736537 0.444236 0.353278 0.641473 0.341136 1.104740 0.248663 -0.544650 0.193895 0.726258 -0.630968 0.118404 0.306176 -0.561632 0.097013 0.580721 0.624219 0.435886 0.091178 0.489861 -0.578684 -0.408591 -0.260435 -0.143940 -0.080857 -0.027526 0.056187 0.521291 -0.110599 -0.236086 -0.111193 -0.077610 0.295413 -0.763291 0.594456 -0.295688 -0.158782 
ไ -0.150873 -0.150008 0.260207 -0.149591 0.154010 -0.040992 -0.058904 -0.253645 -0.419611 0.698263 -0.262577 -0.015531 0.109610 -0.468074 -0.240134 0.133830 0.424066 -0.026612 -0.630324 -0.920168 -0.072756 -0.229346 -0.605816 0.358921 -0.110716 0.523468 -0.259668 0.181895 -0.144904 0.155187 0.190370 0.012157 0.397362 -0.228407 0.299709 -0.101307 -0.108456 0.096730 0.384449 0.054347 0.173031 0.407096 -0.152241 -0.483941 0.436557 0.548882 0.056348 -0.119231 0.682332 -0.397064 0.003250 -0.592321 0.216986 -0.232674 -0.397328 -0.218192 -0.003216 0.188432 0.526928 -0.532728 0.013393 0.362767 0.249073 0.251288 0.181022 0.423198 0.334245 0.293366 -0.670833 0.026713 0.213173 -0.056134 0.269918 0.037486 0.167082 -0.340151 0.022360 -0.177579 -0.740125 -0.336893 0.135332 0.035331 -0.077457 0.127486 0.077653 0.305586 -0.077688 -0.279335 0.192130 -0.318156 -0.158659 0.068324 0.038492 -0.336727 0.062188 0.098219 -0.052036 -0.078623 -0.126142 0.120475 
ุ -0.265790 -0.105310 0.350939 0.013538 -0.143118 0.078087 0.102816 -0.203421 -0.301226 0.500889 0.270449 0.064242 -0.158918 -0.521282 -0.310122 0.374647 0.370149 -0.236301 0.672450 0.696226 -0.555507 0.028941 0.081777 -0.308917 0.092494 -0.230855 0.118582 -0.009634 -0.042593 0.301976 -0.136215 -0.110861 -0.172100 -0.019194 0.032858 0.068839 0.256871 -0.247643 0.096606 -0.335964 -0.045442 0.111366 0.255957 0.057115 0.073753 0.378236 -0.115872 0.091943 -0.211525 0.124388 0.126181 0.014340 0.025260 -0.018609 0.324716 -0.266268 -0.332873 -0.164901 -0.033233 0.015215 -0.205653 -0.118872 0.080504 -0.067142 0.231314 -0.047965 0.032294 0.121656 -1.263203 -0.635536 -0.432528 -0.011692 -0.144429 0.156197 0.166754 0.033706 0.443663 -0.072945 -0.268988 -0.437318 0.073254 0.158662 0.193103 0.093956 0.300987 0.658662 0.192419 0.118313 -0.113420 -0.085412 0.012119 -0.547940 0.067453 -0.287481 -0.247693 -0.163102 -0.131938 -0.417833 0.199613 -0.289489 
ึ -0.080855 0.079125 0.445266 -0.006580 -0.461451 -0.022835 -0.667949 -0.079286 0.123319 0.932284 0.136040 0.589837 -0.320191 -0.135513 -0.443956 0.296631 1.513608 -0.613936 -0.056836 0.048215 -1.395101 -0.406359 0.089121 -0.299299 -0.240342 -0.752871 0.022560 -0.043522 0.087044 0.380465 -0.260725 0.052365 0.218008 -0.164598 0.438857 0.077298 0.232714 -0.167898 -0.215635 0.513590 0.087440 -0.693385 0.304129 0.603734 -0.595354 0.308155 0.262516 0.192744 -0.409060 0.263161 0.038686 -0.248292 -0.107181 -0.172345 0.103166 -1.084955 -0.335256 -0.123961 0.988876 -0.919304 0.045363 0.771089 -0.435240 0.693800 0.244440 -0.438166 0.577227 0.253439 -1.245980 -0.143155 -0.390070 -0.604763 -0.005466 -0.345470 0.758162 -0.989625 1.126935 0.605179 -0.823752 -0.350014 0.442697 -0.257448 0.202993 0.132469 -0.015076 1.303343 0.543618 -0.098591 -0.108362 -0.917403 -0.239141 -1.274634 -0.275761 -0.599717 -0.294716 -0.429621 0.170795 -0.634214 0.005909 0.104620 
ำ -0.068339 0.162330 -0.076094 0.227469 -0.499951 -0.196547 -0.007787 0.268878 0.125139 0.265731 -0.198986 -0.235056 0.463317 0.288231 -0.194095 -0.086613 0.645658 -0.868571 -0.271377 -0.253595 -0.548691 -0.452220 0.018990 -0.178437 0.204815 -0.583167 0.345309 -0.148456 -0.088465 0.347096 -0.014172 -0.396920 -0.043429 -0.016690 -0.362398 0.122068 0.262067 -0.480889 0.677691 -0.929270 0.103626 0.225588 0.077749 0.007708 0.198931 0.816857 -0.059624 0.235566 0.105265 0.019321 0.380035 -0.575636 0.093386 -0.021053 0.280806 -0.362911 -0.177289 -0.076169 0.147701 0.232704 -0.237624 0.065938 -0.112571 0.215894 0.484040 -0.324112 0.447124 0.343362 -0.944874 0.037973 -0.004190 -0.222050 0.292685 -0.174629 0.201685 -0.301103 0.303665 0.244505 -0.126721 -0.396588 0.358057 0.043175 0.004824 0.147424 0.373010 1.079037 0.241620 0.049440 0.095752 -0.366887 -0.221562 -0.313175 0.068925 -0.302973 0.048495 0.110559 -0.777851 -0.123140 -0.073297 0.124196 
โ -0.244401 -0.427865 0.681202 -0.384892 0.149026 0.249688 0.104885 -0.211144 -0.694810 0.765201 0.385882 0.642081 0.120978 -0.771850 0.119314 0.412557 0.127059 0.138033 0.022894 0.298759 -0.121388 -0.028795 -0.392713 0.100348 -0.004950 -0.020847 0.146955 0.129395 0.076824 -0.050836 0.201323 -0.067955 -0.393066 0.277434 -0.346496 0.017441 0.052196 -0.179721 0.230100 -0.371920 0.212611 0.469341 0.028440 -0.256085 0.134335 0.026969 0.128902 0.178858 0.284756 -0.223415 0.179570 0.034852 -0.111331 -0.049791 0.131900 0.041250 -0.218155 -0.336357 -0.245506 0.391943 -0.219830 0.077817 0.223711 -0.062653 0.100363 -0.202570 -0.524449 0.023718 -0.204404 -0.135778 0.144510 0.189073 0.068482 0.223314 -0.130151 0.105095 0.250383 -0.447688 -0.079900 -0.382411 0.325637 0.290035 -0.032034 0.333330 0.468069 0.602850 -0.097750 -0.169395 -0.080313 -0.001492 -0.166452 -0.360547 0.325799 -0.299690 -0.132612 -0.036816 0.146179 -0.346563 0.185994 0.183272 
ู -0.192998 -0.273069 0.505570 -0.433760 0.120068 -0.170339 -0.035210 0.051861 -0.039342 0.005571 -0.254570 -0.134656 -0.196590 -0.383014 -0.163063 0.297214 0.151936 0.091312 -0.081423 -0.199123 -0.431829 -0.119387 -0.273733 0.096447 -0.099981 -0.093431 -0.341572 0.131297 -0.176456 0.167438 -0.051127 0.174345 -0.218645 0.063967 0.245769 0.066284 0.250149 0.138112 -0.219724 0.163160 -0.030700 -0.314754 0.162563 -0.089663 -0.054943 0.293185 -0.116653 -0.239412 0.264717 0.082729 -0.085336 0.184498 0.076118 -0.119273 -0.011561 -0.037561 0.018498 0.276371 0.434844 -0.885996 0.096254 0.109145 0.099881 0.058686 -0.149819 0.481062 0.333822 0.070043 -1.110325 -0.678864 -0.489252 -0.131921 -0.161649 0.598550 0.133226 0.054725 0.483979 -0.301985 -0.689309 -0.015108 -0.176883 -0.191822 0.077219 0.145967 0.466002 1.134402 0.230453 -0.357748 0.828304 -0.074315 -0.081413 0.056950 0.053827 0.465398 -0.137426 -0.269459 -0.010270 -0.033570 0.245939 -0.282052 
ษ 0.129208 -0.008157 -0.476865 -0.118847 -0.419822 -0.690478 0.911518 0.723792 0.139328 -0.391653 0.408508 0.630867 0.435101 -0.074246 0.069345 1.631771 -1.271583 0.745207 0.902059 0.325632 -0.144178 0.567201 1.075488 -1.372648 0.571208 0.041010 0.403501 -0.659439 0.477443 -0.225962 0.293559 -0.377606 0.084086 -0.227950 -0.060693 -0.071194 -0.423633 0.455835 -0.173506 0.968101 0.620976 -0.029518 -0.115869 -0.373668 0.005824 -1.202182 -0.235024 -0.151086 0.248523 -0.324509 -0.248809 0.201080 0.337457 0.063415 -0.519159 0.603553 0.641990 0.416211 0.313251 -1.109504 0.380050 -0.398819 0.189561 -0.060052 -0.391564 -0.372747 -0.302302 -0.145057 0.827646 0.363313 0.306359 -0.378625 0.356415 0.132983 -0.114950 0.254705 -0.487582 -0.687721 -0.441424 1.060826 0.097040 0.039180 0.489821 -0.283729 -0.248748 -0.543851 -0.457944 -0.358434 0.180855 0.569908 0.104999 0.768955 0.571657 0.041358 0.249901 0.051884 1.275565 -0.081176 0.230527 -0.041951 
ณ 0.067861 -0.005125 0.039174 0.525094 -0.001823 0.015500 0.204676 0.027841 -0.195672 0.161811 0.809977 0.363534 -0.026868 0.027798 0.029045 1.116770 -0.262966 -0.075203 0.800880 0.930444 0.056772 0.492860 0.885249 -0.476347 0.285600 -0.524668 0.510527 -0.352317 -0.004476 0.149213 -0.186752 -0.269001 -0.806639 0.158386 -0.534766 -0.029056 -0.088092 -0.356507 -0.135549 -0.356983 -0.160375 0.457380 0.308826 -0.133238 0.122300 0.053853 0.052952 0.177370 -0.268069 0.160507 0.120608 -0.500959 -0.180029 0.272197 0.261011 -0.499968 0.013980 -0.017689 -0.098323 -0.091052 0.125827 -0.227728 -0.356342 -0.358840 0.074779 0.001251 0.082451 -0.126298 0.336193 -0.163215 -0.399444 0.303213 -0.193522 -0.228352 0.064898 -0.054033 -0.233851 -0.202967 0.893540 0.366191 -0.022605 0.008133 0.164718 -0.262872 -0.608281 -0.782607 -0.069521 0.155017 -0.779095 -0.151842 0.297379 -0.157708 -0.047232 -0.143808 -0.208660 -0.345960 0.071413 -0.105715 0.086604 0.164539 
ถ 0.028405 0.085188 -0.430620 0.251460 0.458533 -0.178027 -0.008430 0.242850 -0.397852 0.058953 -0.433378 -0.063639 0.395305 0.561900 -0.175087 0.734960 -1.075632 0.026111 -0.383315 -0.492247 0.236372 -0.073970 -0.098180 -0.067736 -0.160816 0.705192 -0.568796 0.071653 -0.360575 0.003969 0.229080 0.026006 0.524780 -0.323024 0.378737 -0.206878 0.046734 0.288325 0.184356 0.001264 0.104033 0.212065 0.122558 -0.390280 0.344863 0.505079 -0.191468 -0.102953 0.494894 -0.145928 -0.336410 -0.159724 0.316760 -0.295239 -0.074403 0.014888 0.037540 0.199892 0.318233 -0.262624 0.041439 -0.367992 0.061574 -0.097442 -0.377622 0.477716 0.889786 -0.005918 1.249226 0.069067 0.296160 -0.038716 0.499008 -0.261782 -0.183717 0.364508 -1.160811 0.439161 -0.464216 0.468438 0.153123 0.459507 0.229972 0.116682 -0.146669 -0.203015 -0.218186 -0.162331 -0.148064 0.492707 0.105428 0.289211 0.216354 0.111054 -0.179605 -0.212468 0.085022 0.230075 0.219179 -0.205591 
ผ 0.154776 0.008493 -0.123720 -0.146200 0.445339 -0.064926 -0.333862 0.049311 -0.382355 0.083376 -0.426863 -0.382519 -0.094296 0.127764 -0.306014 0.509022 0.380258 -0.196336 -0.093152 0.237454 -0.267395 -0.239810 0.090935 -0.322176 -0.105852 0.342273 -0.803903 0.218999 -0.634207 0.251193 -0.021317 0.428905 -0.687085 0.252434 0.336118 0.133294 0.174491 0.406833 0.174929 0.013389 -0.234400 -0.228834 -0.129271 -0.409943 0.257660 0.984935 -0.329758 -0.180460 0.553314 0.066762 -0.166273 -0.325772 0.204401 -0.141655 0.035699 0.278372 -0.146069 0.075602 0.035460 0.257570 0.014724 -0.198836 0.240913 0.021939 -0.096629 0.518339 0.497107 0.196178 0.437837 0.008942 0.379852 -0.219800 0.460523 -0.505513 -0.285165 0.425130 -0.195572 0.358057 0.423083 0.497730 -0.429282 -0.257095 -0.252315 -0.007354 -0.126125 -0.223200 -0.091412 0.222300 0.270704 0.306500 0.037986 0.302620 0.156867 0.345735 -0.157432 0.135318 -0.400449 0.365497 0.243372 -0.387525 
ซ 0.306392 0.612262 -1.110427 0.297617 0.056005 -0.574810 -0.150495 0.445151 0.222733 0.054267 0.027574 0.618058 0.316840 0.588950 -0.459087 0.472608 -0.097970 0.009688 -0.249214 -0.279792 0.574835 -0.469588 -0.645157 0.345115 -0.553744 0.964084 -0.576240 -0.102482 0.149855 -0.146565 0.249024 -0.100207 0.686186 -0.466963 0.666617 -0.141904 -0.611900 0.547097 0.852207 0.150051 0.310369 0.168911 -0.332393 -0.453544 0.584242 0.532145 0.172731 -0.301222 0.585137 -0.147080 0.362918 -0.030608 0.261080 0.094486 -0.368282 0.357026 0.141604 0.530192 0.486827 -0.925716 0.510072 0.205543 -0.040679 -0.091303 -0.054983 0.763460 1.091826 -0.142546 1.715797 0.773849 0.991412 -0.602341 0.333115 -0.913169 -0.119251 -0.645115 -0.686808 -0.252345 -0.780521 0.432941 0.059394 -0.030213 0.245113 -0.575575 -0.468759 -0.327517 -0.305201 -0.387867 0.138580 0.006899 -0.021855 0.291582 0.068319 0.226418 -0.067534 0.340432 0.322429 0.139332 -0.208112 0.278146 
ธ -0.044705 -0.726365 0.227400 -0.137138 0.422405 0.544876 0.281217 -0.216562 -0.557050 -0.178449 0.050846 -0.945949 0.032221 -0.284356 0.401517 -0.889742 -1.144300 0.042913 0.822066 0.551006 0.039047 0.748812 0.556289 -0.487334 0.377707 -0.471930 0.539690 -0.031807 0.113453 0.051318 0.109756 -0.385762 -0.204286 -0.010958 -0.340038 -0.266232 0.233221 -0.614600 -0.220760 -0.635089 -0.418866 0.405434 0.290917 -0.225106 -0.032134 -0.525640 -0.012985 -0.138207 -0.688141 0.481109 0.168285 0.475047 -0.093041 0.207965 0.286172 0.398121 0.146206 -0.110036 -0.635015 0.641363 -0.127357 -0.377964 0.125041 -0.201988 0.097459 0.037376 -0.203415 -0.000885 1.393077 0.329490 -0.004098 0.393254 0.365977 -0.409497 -0.195893 0.456997 -0.376154 -0.293674 1.311454 0.022661 -0.053896 0.330107 -0.201108 -0.136178 0.099896 0.111245 0.180158 0.044280 0.537233 -0.154470 -0.152832 0.243237 -0.014870 0.664905 -0.003931 -0.048383 -0.539843 0.416686 0.115892 0.026142 
ภ 0.439194 -0.313976 -0.345376 0.099713 0.172010 0.258248 -0.114560 -0.165644 -0.480541 0.186183 0.325906 -0.158447 -0.277699 -0.006111 0.199357 -0.250579 -0.443135 -0.202791 0.508096 0.302881 -0.196395 0.126565 0.628823 -0.649046 0.205237 -0.386042 0.039679 -0.015603 -0.488054 0.186976 -0.143821 -0.159629 -0.559999 0.101813 -0.110721 0.061726 0.114722 -0.332951 -0.587075 0.374850 -0.156186 -0.477176 0.288569 0.077260 -0.511387 -0.084427 -0.598912 -0.097897 -0.193153 0.246883 -0.367040 -0.468306 -0.197520 0.021789 -0.142303 -0.447589 0.430111 0.266862 0.023343 -0.148747 0.106743 -0.015888 -0.020858 0.020861 -0.165794 0.426374 -0.042590 -0.112989 0.123518 -0.097294 -0.657549 0.007956 0.299561 -0.079780 -0.008758 0.515408 0.407156 0.233343 1.066868 1.033912 0.076905 -0.369957 0.085597 -0.199436 -0.044996 0.167214 0.096178 -0.011749 0.775916 -0.222343 0.131688 0.584745 -0.030828 0.766678 0.126345 -0.011966 -0.339203 0.615478 0.198352 -0.122106 
ญ -0.236728 0.329765 -0.336171 0.491415 -0.797788 -0.366225 0.426541 -0.000556 0.106989 -0.629369 -0.435230 -0.977985 0.097549 0.145714 -0.173762 -0.311243 -1.028822 -0.603316 0.260537 0.088896 0.114058 0.133851 0.185444 0.049467 0.309933 -0.779337 0.750865 -0.072999 0.194867 -0.098632 -0.187222 -0.684935 -0.578166 0.101278 -0.088054 0.055910 -0.001481 -0.699886 0.164848 -0.655538 -0.092799 0.824174 0.418951 0.114133 0.321245 0.005322 0.293992 0.519071 -0.404276 0.053659 -0.360105 -0.633981 -0.030104 -0.318269 0.162036 -0.736514 -0.104962 -0.373284 -0.189525 -0.126736 -0.415856 -0.175714 0.127616 -0.337218 0.176586 0.164372 0.780297 0.027869 0.617862 0.010513 0.028774 0.537526 0.120132 0.325990 0.071609 -0.221890 0.058887 -0.009293 -0.159791 -0.851748 0.090093 0.875561 0.163135 0.000356 0.608360 0.944694 0.241980 0.046826 0.112582 -0.122422 -0.250463 0.476640 -0.082454 0.125134 0.204853 0.059027 -1.198916 0.021042 -0.178675 0.206679 
ฟ 0.041893 -0.041374 0.244407 -0.014010 0.386292 0.189504 -0.169429 -0.413749 0.242065 0.298203 0.479962 0.693407 -0.063245 0.241283 0.005602 -0.373570 -0.028601 -0.052808 0.041156 0.456375 0.338478 0.102918 -0.004328 0.373248 -0.337697 0.244958 0.084181 -0.141060 0.012415 -0.124909 0.035271 -0.083246 -0.133361 0.139634 -0.291453 0.109826 -0.340078 -0.169133 0.224937 -0.451598 0.135779 0.339839 -0.256533 -0.013464 0.165404 0.313074 0.344576 0.039952 0.236008 -0.015674 0.120895 -0.186024 -0.053638 0.242440 -0.199402 -0.079833 0.302158 0.293330 0.112178 -0.219680 0.432051 0.143060 -0.057496 -0.200334 0.008933 0.308063 0.256853 -0.342377 0.406974 0.253623 0.052785 0.120692 -0.390393 -0.144482 0.197987 -0.580123 -0.261424 0.182676 -0.067987 -0.130960 -0.158179 -0.260694 0.002829 -0.233678 -0.081934 -0.201117 0.008951 -0.261375 0.574007 -0.388234 0.261350 0.211838 -0.309796 0.501969 0.030471 -0.032470 -0.220559 0.153992 -0.493776 0.519481 
ๆ 0.140129 0.515460 -0.418432 0.341760 -0.088821 -0.017509 -0.312173 -0.187465 0.031485 0.056910 0.142556 0.541858 0.116275 0.503245 -0.069799 0.409455 -0.260986 -0.239330 -0.382222 0.130080 0.267226 -0.299296 -0.304830 0.353333 -0.260775 -0.128600 -0.252317 0.192667 -0.114630 -0.158881 -0.116887 0.160988 -0.531828 0.228582 0.036611 0.076694 0.026317 0.059760 0.034160 -0.078327 0.037176 0.012219 0.019078 0.111459 0.046505 0.399309 0.073890 0.302170 0.261132 -0.117091 -0.128111 -0.484044 -0.173959 -0.264843 0.082853 -0.384902 -0.119117 -0.117180 0.030023 -0.014311 0.054755 0.031236 -0.016517 -0.091361 -0.099772 0.271061 0.374022 -0.283642 -0.075233 -0.273634 -0.031311 0.024413 -0.197620 0.073821 -0.145952 -0.109564 -0.553695 0.498326 -0.739288 -0.287935 0.204956 0.420316 0.257168 0.204470 0.245909 0.482615 0.143842 -0.068369 0.004497 0.259415 -0.120180 -0.009462 0.012510 0.364343 -0.004983 -0.101230 -0.222607 0.074507 0.063645 0.187832 
ฐ -0.092751 -0.115531 0.041186 0.466408 0.147188 0.044594 -0.041387 -0.306369 -0.147254 -0.389597 0.719237 -0.120505 0.091057 0.379033 0.007243 0.648449 -0.688378 -0.132280 0.629161 0.784114 0.004313 0.304780 0.747136 -0.475411 0.082625 -0.745711 0.299674 -0.126570 0.036489 -0.000266 -0.194866 0.037981 -0.365867 -0.022538 0.175983 -0.053411 -0.168229 -0.191853 -0.176083 0.164310 -0.354802 -0.088898 0.144855 0.210793 -0.223819 -0.472240 0.222899 0.299632 -0.484856 0.475799 0.442106 0.298513 -0.315386 0.385701 0.557250 0.002713 -0.154095 -0.112837 -0.158475 -0.155137 0.066928 -0.188993 -0.230184 -0.261605 0.061521 -0.041920 0.400137 -0.263957 0.826755 -0.014032 -0.127374 0.034511 -0.294918 -0.380243 -0.158332 0.089848 0.019452 -0.108099 0.695242 0.082136 -0.152202 0.086282 0.065959 -0.333066 0.071817 0.340350 0.063884 0.111253 -0.022266 -0.196819 0.058002 0.010467 -0.150428 0.414495 -0.180087 -0.281886 -0.237660 0.178566 0.080772 0.315734 
ฤ 0.062217 -0.139229 -0.451072 0.464968 -0.534165 -0.086451 0.203483 0.038234 -0.547783 0.636496 0.798707 -0.339278 -0.388324 -0.649804 -0.464215 1.590965 0.352912 0.051889 1.125825 0.382700 -0.646428 0.240487 1.121106 -1.210218 1.061849 -0.322392 0.725284 -0.345038 -0.243826 0.588711 -0.326670 -0.331871 -0.160088 -0.322460 0.476154 -0.126718 -0.200497 -0.550207 -0.177810 0.929889 -0.209725 -0.090544 0.439645 -0.042270 -0.359060 -0.691306 -0.564894 0.026236 -0.808429 0.083456 0.216306 -0.332010 0.587886 0.626266 0.017403 -0.257183 -0.101964 -0.103043 0.019237 0.024874 -0.021117 -0.049680 -0.469872 0.064321 0.700321 -0.362112 -0.563882 0.481865 -0.582525 0.189693 -0.839285 -0.280223 0.778723 -0.771011 0.595981 0.010998 0.411842 0.157164 -0.082016 0.324008 0.575600 -0.051122 0.407268 -0.443408 -0.115693 0.691654 0.204403 -0.022925 0.408822 -0.731191 0.118817 0.168556 -0.096353 -0.714979 0.349696 0.268303 0.101691 -0.026135 -0.059437 -0.202065 
ฎ -0.013282 -0.142850 -0.614574 0.164782 -0.311966 0.159979 0.388475 -0.220702 -0.307705 0.158167 0.231831 -0.435815 -0.246756 -0.995329 -0.144148 0.209558 0.264207 0.360281 1.171278 0.608588 -0.961368 0.212894 0.762947 -1.320514 0.907874 -0.106428 0.273325 -0.054739 0.147374 0.198126 -0.023719 -0.095505 0.460987 -0.290419 0.661390 -0.187871 0.198110 -0.318093 -0.082196 0.543010 0.172326 -0.252677 0.199691 0.258851 -0.309089 -1.067837 -0.621820 -0.195441 -0.508840 -0.091437 -0.013191 0.511577 0.271627 0.209526 -0.021240 0.214817 0.059386 -0.099000 0.001320 -0.114419 -0.246710 -0.058113 0.238128 0.331538 0.223213 -0.230936 -0.380609 0.075346 0.364437 0.487988 -0.083000 -0.377431 0.524017 -0.497914 0.333591 0.554580 0.252004 0.115727 -0.372384 0.013462 0.528251 0.126731 0.388309 -0.147122 0.253896 0.530082 0.107422 0.098559 0.406715 0.055151 0.080862 -0.419170 0.205797 -0.604829 0.024622 0.110222 0.538077 -0.355451 0.190781 -0.548602 
ฒ -0.033854 -0.240522 0.088860 0.037764 -0.003196 0.066490 0.068053 -0.091039 -0.079256 -0.226786 0.368622 -0.239547 0.008533 0.230885 0.107573 0.231899 -0.683982 0.003236 0.596887 0.554536 -0.026182 0.432623 0.890250 -0.748676 0.299254 -0.429640 0.379709 -0.176295 -0.048294 0.079323 -0.108687 -0.019580 -0.389401 0.065753 -0.233931 0.052183 -0.022810 -0.215235 -0.350262 0.072970 -0.164769 0.042685 0.110487 -0.065067 -0.274448 -0.316180 -0.132336 0.147184 -0.337720 0.204183 0.013730 -0.155074 -0.144337 0.195703 0.137266 -0.163302 0.124234 0.021330 -0.114049 -0.029946 0.094385 -0.174706 -0.049080 -0.131404 -0.027338 0.082980 0.035220 -0.154895 0.210443 -0.069640 -0.375045 0.103199 -0.009256 -0.117853 -0.006089 0.222867 0.034355 0.027474 0.366572 0.187263 -0.023634 -0.018260 0.115503 -0.170523 0.068578 0.044327 0.018166 0.014529 0.343085 -0.127901 0.091506 0.483581 -0.080633 0.393343 0.138230 0.033019 -0.219609 0.316969 0.030823 0.096683 
ฏ -0.076604 -0.749527 0.504028 -0.165739 0.458527 0.382925 0.280309 -0.357884 -0.527041 0.544386 0.595603 0.193532 0.066945 -0.459912 0.311756 0.131917 -0.115403 -0.031694 0.424484 -0.006506 0.297662 0.534135 0.424280 -0.047613 0.311462 -0.269146 0.610086 -0.276451 0.092949 0.129941 0.098524 -0.490647 0.166770 -0.232398 -0.625570 -0.076898 -0.064805 -0.517475 -0.141612 -0.505482 -0.091450 0.430225 0.211452 -0.296677 -0.002241 -0.182650 -0.037021 -0.171247 -0.290789 0.102458 0.167201 -0.212536 -0.023417 0.116008 -0.071130 -0.179755 0.388948 0.220847 0.102661 -0.217432 0.018916 -0.113088 -0.007058 -0.134401 0.107892 0.238816 -0.015208 0.169940 -0.184319 -0.008669 -0.409997 0.262262 0.075396 0.106290 0.110085 0.035625 -0.150805 -0.430366 0.732276 0.223441 0.011381 -0.141605 -0.003114 -0.096390 -0.220447 -0.274356 0.073054 -0.081349 0.126625 -0.369260 0.108839 0.227112 -0.149575 0.234290 0.107941 -0.151823 -0.393759 0.401658 -0.062523 0.134763 
ฝ -0.086584 0.041958 0.156184 -0.054222 -0.127072 -0.139520 -0.049130 0.077978 0.181633 0.040641 -0.089753 0.168929 -0.017178 -0.066366 -0.076600 -0.011886 0.439133 -0.139961 -0.055186 0.005859 -0.379348 -0.029868 0.075911 -0.244795 0.092874 -0.399556 0.130060 -0.118221 0.132318 0.046928 0.053004 -0.049648 -0.257994 0.251817 -0.181953 0.049011 0.254420 -0.117269 0.106236 -0.368596 0.180077 -0.078771 0.042505 0.121353 -0.030399 0.236935 0.022018 -0.031246 0.050478 -0.098816 -0.096834 -0.057825 -0.111093 -0.176300 -0.034686 -0.287024 0.049849 0.111162 0.342396 -0.462471 -0.076405 0.237411 0.037975 0.204771 -0.060472 0.201461 0.493199 -0.010641 -0.166476 -0.063305 -0.011441 -0.087493 -0.035701 0.164861 0.075340 -0.143783 0.258317 0.019001 -0.262131 -0.079584 0.127689 -0.058287 0.079438 0.085789 -0.037647 0.117896 0.023938 -0.036692 -0.179103 0.018502 -0.039164 -0.399472 0.025261 -0.093792 -0.068198 -0.070129 0.014631 -0.118323 -0.017258 -0.074713 
ฮ -0.133989 -0.192837 0.248704 -0.046993 0.342306 0.152552 -0.027758 -0.245701 -0.057115 0.251601 0.267139 0.327996 -0.107694 -0.110114 -0.038696 -0.072281 0.144101 0.008483 0.132879 0.312095 0.220508 0.076767 0.026297 0.119154 -0.013209 0.078572 0.153034 -0.092842 0.044797 -0.049380 0.086082 -0.060041 -0.040913 0.128224 -0.133694 0.018551 -0.098250 -0.224947 0.183132 -0.439159 0.095127 0.248810 -0.110473 0.029324 0.095657 0.021910 0.102415 -0.035889 -0.000331 -0.027557 0.030973 0.115927 -0.001033 0.147940 -0.037590 0.068074 0.150134 0.163765 0.001684 -0.058104 0.070145 0.030138 0.046580 -0.130517 -0.088373 0.358307 0.319825 -0.152834 0.552175 0.216744 0.067503 0.120332 -0.135218 0.008081 0.028787 -0.067663 -0.067970 -0.012820 0.009743 -0.078920 -0.039119 -0.060656 -0.017710 -0.122988 0.012389 -0.229406 -0.078117 -0.078944 0.152403 -0.086985 0.153075 0.138026 -0.109260 0.084699 -0.031197 0.107836 -0.122423 0.067382 -0.281079 0.138455 
ฉ 0.041248 -0.182922 0.167889 -0.057653 -0.015846 0.087893 -0.061170 -0.091019 -0.167542 -0.041927 0.127437 -0.185225 -0.052562 0.160062 0.116460 -0.338467 -0.525817 0.030683 0.251008 0.191312 -0.086711 0.245693 0.294376 -0.347027 -0.039524 -0.221985 0.155748 0.028084 -0.030992 0.029519 -0.003970 -0.009347 -0.250933 0.053775 -0.262883 -0.009041 0.071225 -0.172868 -0.235646 -0.144816 -0.071629 0.156179 0.101912 -0.188304 -0.100806 0.072909 -0.013916 0.111409 0.045474 0.075330 -0.057164 -0.354235 -0.285661 -0.049272 -0.010522 -0.349101 0.037482 0.015213 0.010958 -0.172515 0.142052 0.129746 0.076465 0.002772 -0.082518 0.259372 0.055309 -0.205914 0.265784 -0.057279 -0.169443 0.134245 0.034529 -0.120707 -0.001863 -0.016550 0.181779 0.012473 0.129474 0.022535 0.113482 0.021968 0.021026 -0.003361 0.092811 0.175078 -0.024535 -0.138248 0.282149 -0.239305 -0.046093 0.253641 -0.031921 0.407619 0.095149 -0.015763 -0.210677 0.205590 0.027427 0.189304 
๊ -0.012455 -0.025363 0.062297 -0.029280 0.139378 -0.084511 -0.061549 0.177808 0.017124 0.013782 -0.054483 0.153327 -0.124600 0.116723 -0.041988 0.462543 0.462029 0.063181 -0.082765 -0.013123 -0.111231 -0.009754 0.256669 -0.350852 0.121410 -0.152307 -0.022755 -0.061219 -0.069315 0.010803 0.078922 0.146802 -0.281907 0.261969 -0.305013 0.089403 0.270852 0.171952 0.096909 -0.392506 0.042422 -0.243812 -0.062169 -0.000019 -0.024238 0.315179 -0.150938 -0.088908 0.232933 -0.085597 -0.085700 0.009507 0.003316 -0.021208 0.012171 0.094687 -0.005612 0.073642 0.009264 0.109056 -0.029845 -0.048127 -0.177962 0.019785 -0.171600 0.012064 0.055167 0.014112 0.237130 0.043355 0.082080 -0.101473 0.072018 0.030874 -0.134846 0.140967 -0.155697 0.135262 -0.146920 0.201279 0.002271 -0.106084 -0.032430 0.112162 -0.026501 -0.100529 -0.059743 0.044281 -0.150745 0.304429 0.067683 0.102107 0.006428 0.007967 0.091926 0.146321 -0.020149 0.188568 0.004982 -0.162582 
ฆ -0.077595 -0.048096 0.129980 -0.115520 0.119590 -0.014583 -0.056464 0.010490 0.079832 0.038919 -0.103579 0.081978 -0.055668 -0.044788 0.001486 0.052866 0.287957 0.063180 0.055178 0.072108 -0.221713 0.068644 0.186160 -0.278131 0.102084 -0.021914 -0.028231 -0.022109 -0.049325 0.069895 0.045345 0.122852 -0.139340 0.178450 -0.093349 0.058064 0.179928 -0.043962 0.021946 -0.264147 0.096254 -0.047865 -0.054373 0.033616 -0.055112 0.012973 -0.102773 -0.063854 0.037339 -0.053755 -0.068741 0.121172 0.025511 -0.061039 -0.055270 -0.028358 0.057364 0.137180 0.253625 -0.236070 -0.006904 0.063053 0.189632 0.225886 -0.151452 0.263929 0.347443 -0.034849 0.227156 0.130418 0.051651 -0.071358 0.009550 0.004216 0.059586 0.122351 -0.148393 0.236747 -0.322245 -0.050387 0.107585 0.012623 0.008815 0.089164 0.112533 0.021838 0.005793 0.005552 0.109237 0.069332 0.044940 0.134848 0.005276 -0.025927 0.044758 0.053014 0.004952 0.018860 -0.070782 -0.147326 
ฑ -0.146833 -0.272452 0.308612 -0.053103 0.141170 -0.011802 0.137557 -0.070613 -0.190248 0.146911 0.277256 0.251455 -0.079176 -0.134420 -0.032031 0.469354 -0.214292 0.047625 0.325161 0.255846 0.010525 0.251172 0.353578 -0.268511 0.124224 -0.197712 0.311219 -0.205559 0.064597 -0.010160 0.046233 -0.159556 -0.220404 0.087602 -0.246795 0.044778 -0.037308 -0.190606 -0.083582 -0.219195 0.067790 0.149781 0.074201 -0.065632 -0.064067 -0.165142 -0.002049 0.029933 -0.083735 0.034577 -0.129904 -0.056122 0.003276 0.015357 -0.065327 -0.134647 0.114867 0.085751 0.064947 -0.256004 0.016401 -0.068869 0.022021 -0.145120 -0.114121 0.137519 0.114309 -0.036055 0.402779 0.051960 -0.096449 0.073310 0.027075 0.066310 0.036663 -0.030012 0.064229 -0.156604 0.046660 0.110936 0.015090 0.017687 0.067393 -0.086048 0.095745 0.073430 -0.049227 -0.120266 0.228133 -0.097398 0.092690 0.308663 -0.039496 0.218124 0.103974 0.018897 -0.137560 0.140929 -0.076469 0.073777 
ฬ -0.076837 -0.149671 0.225339 -0.117892 0.070612 0.034453 0.011889 -0.007016 -0.165628 0.165232 0.067348 0.139661 -0.037687 -0.143027 -0.016827 0.272308 0.111299 0.006716 0.130462 0.196350 -0.142820 0.053649 0.086289 -0.180980 0.043684 -0.112787 0.013626 0.001891 -0.017173 0.029357 0.031142 0.021755 -0.266430 0.150340 -0.137834 0.045524 0.112357 -0.049541 -0.010164 -0.165224 0.021085 0.029588 0.047609 -0.073674 -0.016091 0.058859 -0.029200 0.009725 0.034012 -0.000653 -0.044424 0.030196 -0.016624 -0.062976 0.017822 -0.030652 -0.028648 -0.016779 0.021281 -0.033536 -0.055981 -0.016405 0.099526 0.022857 -0.068680 0.105688 0.080845 -0.005695 0.167652 -0.003434 0.031133 0.001564 0.078195 0.022407 -0.047724 0.073716 0.004174 -0.006811 -0.058350 -0.013948 0.047075 0.081247 0.005206 0.073855 0.107261 0.146138 0.005215 -0.007821 0.021493 0.035622 -0.036560 0.014992 0.076980 0.043232 -0.014213 -0.015865 -0.048218 0.007231 0.071414 -0.051818 
